<?xml version="1.0"?>
<opencv_storage>
<cascade>
  <stageType>BOOST</stageType>
  <featureType>HAAR</featureType>
  <height>24</height>
  <width>48</width>
  <stageParams>
    <boostType>GAB</boostType>
    <minHitRate>9.9500000476837158e-01</minHitRate>
    <maxFalseAlarm>5.0000000000000000e-01</maxFalseAlarm>
    <weightTrimRate>9.4999999999999996e-01</weightTrimRate>
    <maxDepth>1</maxDepth>
    <maxWeakCount>100</maxWeakCount></stageParams>
  <featureParams>
    <maxCatCount>0</maxCatCount>
    <featSize>1</featSize>
    <mode>BASIC</mode></featureParams>
  <stageNum>11</stageNum>
  <stages>
    <!-- stage 0 -->
    <_>
      <maxWeakCount>4</maxWeakCount>
      <stageThreshold>-1.0801181793212891e+00</stageThreshold>
      <weakClassifiers>
        <_>
          <internalNodes>
            0 -1 21 3.5693340003490448e-02</internalNodes>
          <leafValues>
            -7.5000000000000000e-01 7.8688526153564453e-01</leafValues></_>
        <_>
          <internalNodes>
            0 -1 4 -8.3453375846147537e-03</internalNodes>
          <leafValues>
            6.9091099500656128e-01 -6.5270942449569702e-01</leafValues></_>
        <_>
          <internalNodes>
            0 -1 74 1.5732925385236740e-02</internalNodes>
          <leafValues>
            -4.5651167631149292e-01 7.9393392801284790e-01</leafValues></_>
        <_>
          <internalNodes>
            0 -1 28 -4.3112500570714474e-03</internalNodes>
          <leafValues>
            7.7910286188125610e-01 -3.8362720608711243e-01</leafValues></_></weakClassifiers></_>
    <!-- stage 1 -->
    <_>
      <maxWeakCount>6</maxWeakCount>
      <stageThreshold>-1.4060634374618530e+00</stageThreshold>
      <weakClassifiers>
        <_>
          <internalNodes>
            0 -1 38 2.6419892907142639e-02</internalNodes>
          <leafValues>
            -7.3966944217681885e-01 6.9379842281341553e-01</leafValues></_>
        <_>
          <internalNodes>
            0 -1 15 -4.0955111384391785e-02</internalNodes>
          <leafValues>
            5.9624254703521729e-01 -5.9079337120056152e-01</leafValues></_>
        <_>
          <internalNodes>
            0 -1 66 -4.0332642383873463e-03</internalNodes>
          <leafValues>
            5.6292355060577393e-01 -5.6426644325256348e-01</leafValues></_>
        <_>
          <internalNodes>
            0 -1 27 -7.9879444092512131e-03</internalNodes>
          <leafValues>
            6.5435093641281128e-01 -3.5832977294921875e-01</leafValues></_>
        <_>
          <internalNodes>
            0 -1 50 -4.9270212184637785e-04</internalNodes>
          <leafValues>
            -8.5798054933547974e-01 2.7272224426269531e-01</leafValues></_>
        <_>
          <internalNodes>
            0 -1 10 -2.1604770794510841e-02</internalNodes>
          <leafValues>
            5.7427328824996948e-01 -4.3116426467895508e-01</leafValues></_></weakClassifiers></_>
    <!-- stage 2 -->
    <_>
      <maxWeakCount>6</maxWeakCount>
      <stageThreshold>-1.2114540338516235e+00</stageThreshold>
      <weakClassifiers>
        <_>
          <internalNodes>
            0 -1 61 4.6938816085457802e-03</internalNodes>
          <leafValues>
            -6.6117644309997559e-01 4.8869565129280090e-01</leafValues></_>
        <_>
          <internalNodes>
            0 -1 19 -1.1573865264654160e-01</internalNodes>
          <leafValues>
            5.2668631076812744e-01 -6.2627577781677246e-01</leafValues></_>
        <_>
          <internalNodes>
            0 -1 33 -3.1614515464752913e-03</internalNodes>
          <leafValues>
            7.8561490774154663e-01 -3.7097358703613281e-01</leafValues></_>
        <_>
          <internalNodes>
            0 -1 7 -1.1498862877488136e-02</internalNodes>
          <leafValues>
            5.1155680418014526e-01 -4.8399543762207031e-01</leafValues></_>
        <_>
          <internalNodes>
            0 -1 14 -7.1279006078839302e-03</internalNodes>
          <leafValues>
            5.9623998403549194e-01 -4.4912442564964294e-01</leafValues></_>
        <_>
          <internalNodes>
            0 -1 47 -1.0125112021341920e-03</internalNodes>
          <leafValues>
            -8.6170440912246704e-01 3.3472731709480286e-01</leafValues></_></weakClassifiers></_>
    <!-- stage 3 -->
    <_>
      <maxWeakCount>6</maxWeakCount>
      <stageThreshold>-1.0906196832656860e+00</stageThreshold>
      <weakClassifiers>
        <_>
          <internalNodes>
            0 -1 37 3.1564272940158844e-02</internalNodes>
          <leafValues>
            -6.4356434345245361e-01 4.3624159693717957e-01</leafValues></_>
        <_>
          <internalNodes>
            0 -1 9 -4.2543169111013412e-03</internalNodes>
          <leafValues>
            4.4547995924949646e-01 -6.3495165109634399e-01</leafValues></_>
        <_>
          <internalNodes>
            0 -1 26 -9.0619064867496490e-03</internalNodes>
          <leafValues>
            7.2736549377441406e-01 -4.0613996982574463e-01</leafValues></_>
        <_>
          <internalNodes>
            0 -1 74 1.2929815798997879e-02</internalNodes>
          <leafValues>
            -4.2944478988647461e-01 6.8282401561737061e-01</leafValues></_>
        <_>
          <internalNodes>
            0 -1 55 -4.6328566968441010e-03</internalNodes>
          <leafValues>
            6.0736203193664551e-01 -3.9949637651443481e-01</leafValues></_>
        <_>
          <internalNodes>
            0 -1 48 2.8818234568461776e-04</internalNodes>
          <leafValues>
            3.4317150712013245e-01 -8.5478413105010986e-01</leafValues></_></weakClassifiers></_>
    <!-- stage 4 -->
    <_>
      <maxWeakCount>8</maxWeakCount>
      <stageThreshold>-6.4020574092864990e-01</stageThreshold>
      <weakClassifiers>
        <_>
          <internalNodes>
            0 -1 71 -2.2443521302193403e-03</internalNodes>
          <leafValues>
            6.6836732625961304e-01 -4.3092104792594910e-01</leafValues></_>
        <_>
          <internalNodes>
            0 -1 6 -7.5335456058382988e-03</internalNodes>
          <leafValues>
            4.5197898149490356e-01 -5.7504171133041382e-01</leafValues></_>
        <_>
          <internalNodes>
            0 -1 35 -5.3695917129516602e-02</internalNodes>
          <leafValues>
            5.5805671215057373e-01 -4.2995107173919678e-01</leafValues></_>
        <_>
          <internalNodes>
            0 -1 77 1.2571075931191444e-02</internalNodes>
          <leafValues>
            -3.0823463201522827e-01 7.6475244760513306e-01</leafValues></_>
        <_>
          <internalNodes>
            0 -1 58 6.0240656137466431e-02</internalNodes>
          <leafValues>
            -3.8879394531250000e-01 5.7548189163208008e-01</leafValues></_>
        <_>
          <internalNodes>
            0 -1 25 3.9209350943565369e-03</internalNodes>
          <leafValues>
            -2.8119978308677673e-01 7.8475016355514526e-01</leafValues></_>
        <_>
          <internalNodes>
            0 -1 40 4.4392147101461887e-03</internalNodes>
          <leafValues>
            2.8750014305114746e-01 -8.7211459875106812e-01</leafValues></_>
        <_>
          <internalNodes>
            0 -1 42 7.3912730440497398e-03</internalNodes>
          <leafValues>
            -3.3325323462486267e-01 7.3175311088562012e-01</leafValues></_></weakClassifiers></_>
    <!-- stage 5 -->
    <_>
      <maxWeakCount>8</maxWeakCount>
      <stageThreshold>-1.1860122680664062e+00</stageThreshold>
      <weakClassifiers>
        <_>
          <internalNodes>
            0 -1 54 3.4617625642567873e-03</internalNodes>
          <leafValues>
            -5.0091075897216797e-01 6.0975611209869385e-01</leafValues></_>
        <_>
          <internalNodes>
            0 -1 76 4.4619990512728691e-03</internalNodes>
          <leafValues>
            -5.2924335002899170e-01 5.1320904493331909e-01</leafValues></_>
        <_>
          <internalNodes>
            0 -1 5 -3.3073667436838150e-03</internalNodes>
          <leafValues>
            3.7717878818511963e-01 -5.6500267982482910e-01</leafValues></_>
        <_>
          <internalNodes>
            0 -1 20 4.7670761123299599e-03</internalNodes>
          <leafValues>
            -3.0291247367858887e-01 7.0438337326049805e-01</leafValues></_>
        <_>
          <internalNodes>
            0 -1 49 -1.1775712482631207e-03</internalNodes>
          <leafValues>
            -9.2033880949020386e-01 2.1959771215915680e-01</leafValues></_>
        <_>
          <internalNodes>
            0 -1 60 1.2073764577507973e-02</internalNodes>
          <leafValues>
            -4.2860430479049683e-01 4.5964160561561584e-01</leafValues></_>
        <_>
          <internalNodes>
            0 -1 17 -1.1556293815374374e-02</internalNodes>
          <leafValues>
            6.7432385683059692e-01 -2.8570860624313354e-01</leafValues></_>
        <_>
          <internalNodes>
            0 -1 45 -3.0355225317180157e-04</internalNodes>
          <leafValues>
            -6.7473536729812622e-01 2.6459065079689026e-01</leafValues></_></weakClassifiers></_>
    <!-- stage 6 -->
    <_>
      <maxWeakCount>9</maxWeakCount>
      <stageThreshold>-9.3659985065460205e-01</stageThreshold>
      <weakClassifiers>
        <_>
          <internalNodes>
            0 -1 32 -3.9359126240015030e-03</internalNodes>
          <leafValues>
            6.5445023775100708e-01 -4.0453073382377625e-01</leafValues></_>
        <_>
          <internalNodes>
            0 -1 57 3.7661306560039520e-02</internalNodes>
          <leafValues>
            -4.0752249956130981e-01 5.5462759733200073e-01</leafValues></_>
        <_>
          <internalNodes>
            0 -1 65 -3.9372649043798447e-03</internalNodes>
          <leafValues>
            5.4758918285369873e-01 -3.8485991954803467e-01</leafValues></_>
        <_>
          <internalNodes>
            0 -1 67 1.3850722461938858e-03</internalNodes>
          <leafValues>
            -2.9433503746986389e-01 6.5970903635025024e-01</leafValues></_>
        <_>
          <internalNodes>
            0 -1 44 -3.4063104540109634e-03</internalNodes>
          <leafValues>
            -6.8746107816696167e-01 2.9980793595314026e-01</leafValues></_>
        <_>
          <internalNodes>
            0 -1 22 4.0248028934001923e-02</internalNodes>
          <leafValues>
            2.4342387914657593e-01 -7.6347315311431885e-01</leafValues></_>
        <_>
          <internalNodes>
            0 -1 72 8.6516153533011675e-04</internalNodes>
          <leafValues>
            -3.5682815313339233e-01 5.9682059288024902e-01</leafValues></_>
        <_>
          <internalNodes>
            0 -1 13 1.3490399718284607e-01</internalNodes>
          <leafValues>
            -1.8003435432910919e-01 8.5241490602493286e-01</leafValues></_>
        <_>
          <internalNodes>
            0 -1 2 -1.4503022655844688e-02</internalNodes>
          <leafValues>
            6.1673861742019653e-01 -3.6101806163787842e-01</leafValues></_></weakClassifiers></_>
    <!-- stage 7 -->
    <_>
      <maxWeakCount>8</maxWeakCount>
      <stageThreshold>-6.5754181146621704e-01</stageThreshold>
      <weakClassifiers>
        <_>
          <internalNodes>
            0 -1 43 -1.5372127294540405e-02</internalNodes>
          <leafValues>
            7.0059877634048462e-01 -3.5135135054588318e-01</leafValues></_>
        <_>
          <internalNodes>
            0 -1 69 6.9057138171046972e-04</internalNodes>
          <leafValues>
            -3.2035359740257263e-01 6.5127289295196533e-01</leafValues></_>
        <_>
          <internalNodes>
            0 -1 0 -4.1606612503528595e-02</internalNodes>
          <leafValues>
            5.9300363063812256e-01 -3.7177339196205139e-01</leafValues></_>
        <_>
          <internalNodes>
            0 -1 41 -3.2189437188208103e-03</internalNodes>
          <leafValues>
            -8.7892889976501465e-01 2.4230021238327026e-01</leafValues></_>
        <_>
          <internalNodes>
            0 -1 30 -6.7597529850900173e-03</internalNodes>
          <leafValues>
            6.5310686826705933e-01 -3.5236158967018127e-01</leafValues></_>
        <_>
          <internalNodes>
            0 -1 64 3.7775532109662890e-04</internalNodes>
          <leafValues>
            -3.3224961161613464e-01 5.7965195178985596e-01</leafValues></_>
        <_>
          <internalNodes>
            0 -1 11 -1.0497155785560608e-01</internalNodes>
          <leafValues>
            3.2794743776321411e-01 -6.9257229566574097e-01</leafValues></_>
        <_>
          <internalNodes>
            0 -1 36 -2.7606138028204441e-03</internalNodes>
          <leafValues>
            6.0891824960708618e-01 -3.6915308237075806e-01</leafValues></_></weakClassifiers></_>
    <!-- stage 8 -->
    <_>
      <maxWeakCount>8</maxWeakCount>
      <stageThreshold>-8.7278586626052856e-01</stageThreshold>
      <weakClassifiers>
        <_>
          <internalNodes>
            0 -1 68 -4.0785912424325943e-03</internalNodes>
          <leafValues>
            8.8185656070709229e-01 -2.7391874790191650e-01</leafValues></_>
        <_>
          <internalNodes>
            0 -1 73 3.7183961831033230e-03</internalNodes>
          <leafValues>
            -6.1472612619400024e-01 4.2021209001541138e-01</leafValues></_>
        <_>
          <internalNodes>
            0 -1 23 -7.0059779100120068e-03</internalNodes>
          <leafValues>
            6.1609631776809692e-01 -3.8007488846778870e-01</leafValues></_>
        <_>
          <internalNodes>
            0 -1 34 4.0472507476806641e-02</internalNodes>
          <leafValues>
            -5.0109797716140747e-01 3.5050344467163086e-01</leafValues></_>
        <_>
          <internalNodes>
            0 -1 8 -1.0893372818827629e-02</internalNodes>
          <leafValues>
            3.3582022786140442e-01 -5.8716517686843872e-01</leafValues></_>
        <_>
          <internalNodes>
            0 -1 56 -1.3500407803803682e-03</internalNodes>
          <leafValues>
            5.7171511650085449e-01 -3.3392527699470520e-01</leafValues></_>
        <_>
          <internalNodes>
            0 -1 29 1.5099863521754742e-03</internalNodes>
          <leafValues>
            -3.1803563237190247e-01 5.4952514171600342e-01</leafValues></_>
        <_>
          <internalNodes>
            0 -1 16 1.8026775214821100e-03</internalNodes>
          <leafValues>
            3.0753213167190552e-01 -6.8332326412200928e-01</leafValues></_></weakClassifiers></_>
    <!-- stage 9 -->
    <_>
      <maxWeakCount>6</maxWeakCount>
      <stageThreshold>-7.8389489650726318e-01</stageThreshold>
      <weakClassifiers>
        <_>
          <internalNodes>
            0 -1 59 -2.8486371040344238e-02</internalNodes>
          <leafValues>
            7.3298430442810059e-01 -4.5307442545890808e-01</leafValues></_>
        <_>
          <internalNodes>
            0 -1 62 6.4536118879914284e-03</internalNodes>
          <leafValues>
            -2.7333855628967285e-01 9.0347772836685181e-01</leafValues></_>
        <_>
          <internalNodes>
            0 -1 46 9.4428885495290160e-04</internalNodes>
          <leafValues>
            3.3177787065505981e-01 -7.6813977956771851e-01</leafValues></_>
        <_>
          <internalNodes>
            0 -1 1 -1.2405537068843842e-02</internalNodes>
          <leafValues>
            6.2206184864044189e-01 -4.1473293304443359e-01</leafValues></_>
        <_>
          <internalNodes>
            0 -1 63 4.3345475569367409e-03</internalNodes>
          <leafValues>
            -2.4556806683540344e-01 8.2117110490798950e-01</leafValues></_>
        <_>
          <internalNodes>
            0 -1 51 -2.0677063148468733e-03</internalNodes>
          <leafValues>
            -7.6575356721878052e-01 3.5042342543601990e-01</leafValues></_></weakClassifiers></_>
    <!-- stage 10 -->
    <_>
      <maxWeakCount>10</maxWeakCount>
      <stageThreshold>-7.8046941757202148e-01</stageThreshold>
      <weakClassifiers>
        <_>
          <internalNodes>
            0 -1 24 -4.4711530208587646e-03</internalNodes>
          <leafValues>
            5.4853272438049316e-01 -4.3626570701599121e-01</leafValues></_>
        <_>
          <internalNodes>
            0 -1 3 -2.4937447160482407e-03</internalNodes>
          <leafValues>
            5.0160241127014160e-01 -3.5438695549964905e-01</leafValues></_>
        <_>
          <internalNodes>
            0 -1 31 8.1199553096666932e-04</internalNodes>
          <leafValues>
            -2.6454648375511169e-01 6.9194877147674561e-01</leafValues></_>
        <_>
          <internalNodes>
            0 -1 53 4.0775554953143001e-04</internalNodes>
          <leafValues>
            2.2212567925453186e-01 -8.6632418632507324e-01</leafValues></_>
        <_>
          <internalNodes>
            0 -1 75 1.7470949096605182e-03</internalNodes>
          <leafValues>
            -5.7459115982055664e-01 3.2883474230766296e-01</leafValues></_>
        <_>
          <internalNodes>
            0 -1 39 1.9813205581158400e-03</internalNodes>
          <leafValues>
            -5.0783628225326538e-01 3.6997139453887939e-01</leafValues></_>
        <_>
          <internalNodes>
            0 -1 70 -5.3516607731580734e-03</internalNodes>
          <leafValues>
            6.3537031412124634e-01 -2.9757997393608093e-01</leafValues></_>
        <_>
          <internalNodes>
            0 -1 18 -2.0641684532165527e-02</internalNodes>
          <leafValues>
            8.6343878507614136e-01 -2.1132661402225494e-01</leafValues></_>
        <_>
          <internalNodes>
            0 -1 52 -3.9164320332929492e-04</internalNodes>
          <leafValues>
            -7.7829807996749878e-01 2.6580199599266052e-01</leafValues></_>
        <_>
          <internalNodes>
            0 -1 12 6.8838208913803101e-02</internalNodes>
          <leafValues>
            -3.1795409321784973e-01 6.8843913078308105e-01</leafValues></_></weakClassifiers></_></stages>
  <features>
    <_>
      <rects>
        <_>
          0 5 16 18 -1.</_>
        <_>
          0 5 8 9 2.</_>
        <_>
          8 14 8 9 2.</_></rects>
      <tilted>0</tilted></_>
    <_>
      <rects>
        <_>
          0 11 10 8 -1.</_>
        <_>
          0 11 5 4 2.</_>
        <_>
          5 15 5 4 2.</_></rects>
      <tilted>0</tilted></_>
    <_>
      <rects>
        <_>
          0 14 8 5 -1.</_>
        <_>
          4 14 4 5 2.</_></rects>
      <tilted>0</tilted></_>
    <_>
      <rects>
        <_>
          0 17 6 2 -1.</_>
        <_>
          3 17 3 2 2.</_></rects>
      <tilted>0</tilted></_>
    <_>
      <rects>
        <_>
          0 17 10 5 -1.</_>
        <_>
          5 17 5 5 2.</_></rects>
      <tilted>0</tilted></_>
    <_>
      <rects>
        <_>
          0 18 8 3 -1.</_>
        <_>
          4 18 4 3 2.</_></rects>
      <tilted>0</tilted></_>
    <_>
      <rects>
        <_>
          0 18 10 4 -1.</_>
        <_>
          5 18 5 4 2.</_></rects>
      <tilted>0</tilted></_>
    <_>
      <rects>
        <_>
          0 18 16 4 -1.</_>
        <_>
          8 18 8 4 2.</_></rects>
      <tilted>0</tilted></_>
    <_>
      <rects>
        <_>
          1 13 27 8 -1.</_>
        <_>
          10 13 9 8 3.</_></rects>
      <tilted>0</tilted></_>
    <_>
      <rects>
        <_>
          2 18 8 5 -1.</_>
        <_>
          6 18 4 5 2.</_></rects>
      <tilted>0</tilted></_>
    <_>
      <rects>
        <_>
          5 11 14 6 -1.</_>
        <_>
          5 14 14 3 2.</_></rects>
      <tilted>0</tilted></_>
    <_>
      <rects>
        <_>
          5 12 43 12 -1.</_>
        <_>
          5 16 43 4 3.</_></rects>
      <tilted>0</tilted></_>
    <_>
      <rects>
        <_>
          6 6 9 15 -1.</_>
        <_>
          6 11 9 5 3.</_></rects>
      <tilted>0</tilted></_>
    <_>
      <rects>
        <_>
          6 9 39 9 -1.</_>
        <_>
          6 12 39 3 3.</_></rects>
      <tilted>0</tilted></_>
    <_>
      <rects>
        <_>
          6 11 8 4 -1.</_>
        <_>
          6 13 8 2 2.</_></rects>
      <tilted>0</tilted></_>
    <_>
      <rects>
        <_>
          6 12 11 12 -1.</_>
        <_>
          6 16 11 4 3.</_></rects>
      <tilted>0</tilted></_>
    <_>
      <rects>
        <_>
          6 22 12 2 -1.</_>
        <_>
          10 22 4 2 3.</_></rects>
      <tilted>0</tilted></_>
    <_>
      <rects>
        <_>
          7 6 20 6 -1.</_>
        <_>
          7 6 10 3 2.</_>
        <_>
          17 9 10 3 2.</_></rects>
      <tilted>0</tilted></_>
    <_>
      <rects>
        <_>
          7 9 7 9 -1.</_>
        <_>
          7 12 7 3 3.</_></rects>
      <tilted>0</tilted></_>
    <_>
      <rects>
        <_>
          7 12 34 12 -1.</_>
        <_>
          7 16 34 4 3.</_></rects>
      <tilted>0</tilted></_>
    <_>
      <rects>
        <_>
          7 15 6 4 -1.</_>
        <_>
          7 15 3 2 2.</_>
        <_>
          10 17 3 2 2.</_></rects>
      <tilted>0</tilted></_>
    <_>
      <rects>
        <_>
          7 20 34 4 -1.</_>
        <_>
          7 22 34 2 2.</_></rects>
      <tilted>0</tilted></_>
    <_>
      <rects>
        <_>
          8 10 28 14 -1.</_>
        <_>
          22 10 14 14 2.</_></rects>
      <tilted>0</tilted></_>
    <_>
      <rects>
        <_>
          9 15 20 4 -1.</_>
        <_>
          9 15 10 2 2.</_>
        <_>
          19 17 10 2 2.</_></rects>
      <tilted>0</tilted></_>
    <_>
      <rects>
        <_>
          9 16 12 4 -1.</_>
        <_>
          9 16 6 2 2.</_>
        <_>
          15 18 6 2 2.</_></rects>
      <tilted>0</tilted></_>
    <_>
      <rects>
        <_>
          9 17 6 2 -1.</_>
        <_>
          11 17 2 2 3.</_></rects>
      <tilted>0</tilted></_>
    <_>
      <rects>
        <_>
          10 14 10 6 -1.</_>
        <_>
          10 14 5 3 2.</_>
        <_>
          15 17 5 3 2.</_></rects>
      <tilted>0</tilted></_>
    <_>
      <rects>
        <_>
          10 15 9 5 -1.</_>
        <_>
          13 15 3 5 3.</_></rects>
      <tilted>0</tilted></_>
    <_>
      <rects>
        <_>
          10 15 8 4 -1.</_>
        <_>
          10 15 4 2 2.</_>
        <_>
          14 17 4 2 2.</_></rects>
      <tilted>0</tilted></_>
    <_>
      <rects>
        <_>
          10 16 3 6 -1.</_>
        <_>
          11 16 1 6 3.</_></rects>
      <tilted>0</tilted></_>
    <_>
      <rects>
        <_>
          10 17 9 3 -1.</_>
        <_>
          13 17 3 3 3.</_></rects>
      <tilted>0</tilted></_>
    <_>
      <rects>
        <_>
          11 15 2 2 -1.</_>
        <_>
          11 16 2 1 2.</_></rects>
      <tilted>0</tilted></_>
    <_>
      <rects>
        <_>
          11 15 6 4 -1.</_>
        <_>
          11 15 3 2 2.</_>
        <_>
          14 17 3 2 2.</_></rects>
      <tilted>0</tilted></_>
    <_>
      <rects>
        <_>
          12 13 1 6 -1.</_>
        <_>
          12 15 1 2 3.</_></rects>
      <tilted>0</tilted></_>
    <_>
      <rects>
        <_>
          12 20 34 4 -1.</_>
        <_>
          12 22 34 2 2.</_></rects>
      <tilted>0</tilted></_>
    <_>
      <rects>
        <_>
          13 15 15 9 -1.</_>
        <_>
          13 18 15 3 3.</_></rects>
      <tilted>0</tilted></_>
    <_>
      <rects>
        <_>
          13 18 21 2 -1.</_>
        <_>
          13 19 21 1 2.</_></rects>
      <tilted>0</tilted></_>
    <_>
      <rects>
        <_>
          13 20 26 4 -1.</_>
        <_>
          13 22 26 2 2.</_></rects>
      <tilted>0</tilted></_>
    <_>
      <rects>
        <_>
          14 20 25 4 -1.</_>
        <_>
          14 22 25 2 2.</_></rects>
      <tilted>0</tilted></_>
    <_>
      <rects>
        <_>
          15 20 2 4 -1.</_>
        <_>
          15 22 2 2 2.</_></rects>
      <tilted>0</tilted></_>
    <_>
      <rects>
        <_>
          16 14 12 3 -1.</_>
        <_>
          20 14 4 3 3.</_></rects>
      <tilted>0</tilted></_>
    <_>
      <rects>
        <_>
          16 15 12 3 -1.</_>
        <_>
          20 15 4 3 3.</_></rects>
      <tilted>0</tilted></_>
    <_>
      <rects>
        <_>
          16 19 31 3 -1.</_>
        <_>
          16 20 31 1 3.</_></rects>
      <tilted>0</tilted></_>
    <_>
      <rects>
        <_>
          17 20 26 3 -1.</_>
        <_>
          17 21 26 1 3.</_></rects>
      <tilted>0</tilted></_>
    <_>
      <rects>
        <_>
          18 13 8 8 -1.</_>
        <_>
          22 13 4 8 2.</_></rects>
      <tilted>0</tilted></_>
    <_>
      <rects>
        <_>
          19 14 3 5 -1.</_>
        <_>
          20 14 1 5 3.</_></rects>
      <tilted>0</tilted></_>
    <_>
      <rects>
        <_>
          19 15 6 4 -1.</_>
        <_>
          21 15 2 4 3.</_></rects>
      <tilted>0</tilted></_>
    <_>
      <rects>
        <_>
          21 16 6 3 -1.</_>
        <_>
          23 16 2 3 3.</_></rects>
      <tilted>0</tilted></_>
    <_>
      <rects>
        <_>
          22 15 2 4 -1.</_>
        <_>
          23 15 1 4 2.</_></rects>
      <tilted>0</tilted></_>
    <_>
      <rects>
        <_>
          22 15 6 2 -1.</_>
        <_>
          24 15 2 2 3.</_></rects>
      <tilted>0</tilted></_>
    <_>
      <rects>
        <_>
          24 16 4 3 -1.</_>
        <_>
          26 16 2 3 2.</_></rects>
      <tilted>0</tilted></_>
    <_>
      <rects>
        <_>
          25 14 6 9 -1.</_>
        <_>
          27 14 2 9 3.</_></rects>
      <tilted>0</tilted></_>
    <_>
      <rects>
        <_>
          25 15 4 2 -1.</_>
        <_>
          25 15 2 1 2.</_>
        <_>
          27 16 2 1 2.</_></rects>
      <tilted>0</tilted></_>
    <_>
      <rects>
        <_>
          26 16 2 3 -1.</_>
        <_>
          27 16 1 3 2.</_></rects>
      <tilted>0</tilted></_>
    <_>
      <rects>
        <_>
          28 16 10 4 -1.</_>
        <_>
          28 16 5 2 2.</_>
        <_>
          33 18 5 2 2.</_></rects>
      <tilted>0</tilted></_>
    <_>
      <rects>
        <_>
          28 17 9 3 -1.</_>
        <_>
          31 17 3 3 3.</_></rects>
      <tilted>0</tilted></_>
    <_>
      <rects>
        <_>
          29 17 9 1 -1.</_>
        <_>
          32 17 3 1 3.</_></rects>
      <tilted>0</tilted></_>
    <_>
      <rects>
        <_>
          30 4 18 18 -1.</_>
        <_>
          30 4 9 9 2.</_>
        <_>
          39 13 9 9 2.</_></rects>
      <tilted>0</tilted></_>
    <_>
      <rects>
        <_>
          30 5 11 15 -1.</_>
        <_>
          30 10 11 5 3.</_></rects>
      <tilted>0</tilted></_>
    <_>
      <rects>
        <_>
          31 10 10 8 -1.</_>
        <_>
          31 14 10 4 2.</_></rects>
      <tilted>0</tilted></_>
    <_>
      <rects>
        <_>
          31 20 8 4 -1.</_>
        <_>
          31 22 8 2 2.</_></rects>
      <tilted>0</tilted></_>
    <_>
      <rects>
        <_>
          32 20 16 3 -1.</_>
        <_>
          40 20 8 3 2.</_></rects>
      <tilted>0</tilted></_>
    <_>
      <rects>
        <_>
          32 22 12 2 -1.</_>
        <_>
          32 23 12 1 2.</_></rects>
      <tilted>0</tilted></_>
    <_>
      <rects>
        <_>
          33 14 6 5 -1.</_>
        <_>
          35 14 2 5 3.</_></rects>
      <tilted>0</tilted></_>
    <_>
      <rects>
        <_>
          33 18 3 2 -1.</_>
        <_>
          34 18 1 2 3.</_></rects>
      <tilted>0</tilted></_>
    <_>
      <rects>
        <_>
          33 18 2 6 -1.</_>
        <_>
          33 20 2 2 3.</_></rects>
      <tilted>0</tilted></_>
    <_>
      <rects>
        <_>
          34 11 3 6 -1.</_>
        <_>
          34 14 3 3 2.</_></rects>
      <tilted>0</tilted></_>
    <_>
      <rects>
        <_>
          34 16 3 4 -1.</_>
        <_>
          35 16 1 4 3.</_></rects>
      <tilted>0</tilted></_>
    <_>
      <rects>
        <_>
          35 13 1 6 -1.</_>
        <_>
          35 15 1 2 3.</_></rects>
      <tilted>0</tilted></_>
    <_>
      <rects>
        <_>
          35 17 3 2 -1.</_>
        <_>
          36 17 1 2 3.</_></rects>
      <tilted>0</tilted></_>
    <_>
      <rects>
        <_>
          36 12 1 9 -1.</_>
        <_>
          36 15 1 3 3.</_></rects>
      <tilted>0</tilted></_>
    <_>
      <rects>
        <_>
          36 13 1 6 -1.</_>
        <_>
          36 15 1 2 3.</_></rects>
      <tilted>0</tilted></_>
    <_>
      <rects>
        <_>
          36 15 3 4 -1.</_>
        <_>
          37 15 1 4 3.</_></rects>
      <tilted>0</tilted></_>
    <_>
      <rects>
        <_>
          36 19 12 3 -1.</_>
        <_>
          42 19 6 3 2.</_></rects>
      <tilted>0</tilted></_>
    <_>
      <rects>
        <_>
          38 10 10 10 -1.</_>
        <_>
          38 10 5 5 2.</_>
        <_>
          43 15 5 5 2.</_></rects>
      <tilted>0</tilted></_>
    <_>
      <rects>
        <_>
          38 18 6 5 -1.</_>
        <_>
          41 18 3 5 2.</_></rects>
      <tilted>0</tilted></_>
    <_>
      <rects>
        <_>
          38 18 10 2 -1.</_>
        <_>
          43 18 5 2 2.</_></rects>
      <tilted>0</tilted></_>
    <_>
      <rects>
        <_>
          40 15 8 4 -1.</_>
        <_>
          44 15 4 4 2.</_></rects>
      <tilted>0</tilted></_></features></cascade>
</opencv_storage>
